digraph Tree {
node [shape=box] ;
0 [label="X[1] <= 1.5\ngini = 0.6849\nsamples = 15595\nvalue = [6497, 50, 845, 4286, 3917]"] ;
1 [label="X[2] <= 225.0\ngini = 0.6103\nsamples = 2995\nvalue = [123, 31, 441, 750, 1650]"] ;
0 -> 1 [labeldistance=2.5, labelangle=45, headlabel="True"] ;
2 [label="X[0] <= 0.5\ngini = 0.3678\nsamples = 1157\nvalue = [55, 17, 64, 112, 909]"] ;
1 -> 2 ;
3 [label="X[2] <= 105.0\ngini = 0.4938\nsamples = 476\nvalue = [53, 3, 18, 77, 325]"] ;
2 -> 3 ;
4 [label="gini = 0.4675\nsamples = 281\nvalue = [44, 2, 8, 29, 198]"] ;
3 -> 4 ;
5 [label="gini = 0.5105\nsamples = 195\nvalue = [9, 1, 10, 48, 127]"] ;
3 -> 5 ;
6 [label="X[2] <= 1.5\ngini = 0.257\nsamples = 681\nvalue = [2, 14, 46, 35, 584]"] ;
2 -> 6 ;
7 [label="gini = 0.568\nsamples = 13\nvalue = [0, 0, 1, 6, 6]"] ;
6 -> 7 ;
8 [label="gini = 0.2444\nsamples = 668\nvalue = [2, 14, 45, 29, 578]"] ;
6 -> 8 ;
9 [label="X[0] <= 0.5\ngini = 0.6735\nsamples = 1838\nvalue = [68, 14, 377, 638, 741]"] ;
1 -> 9 ;
10 [label="X[2] <= 1277.5\ngini = 0.6473\nsamples = 1429\nvalue = [66, 4, 198, 617, 544]"] ;
9 -> 10 ;
11 [label="gini = 0.6343\nsamples = 926\nvalue = [42, 2, 108, 369, 405]"] ;
10 -> 11 ;
12 [label="gini = 0.6462\nsamples = 503\nvalue = [24, 2, 90, 248, 139]"] ;
10 -> 12 ;
13 [label="X[2] <= 547.5\ngini = 0.5732\nsamples = 409\nvalue = [2, 10, 179, 21, 197]"] ;
9 -> 13 ;
14 [label="gini = 0.5272\nsamples = 130\nvalue = [1, 3, 34, 10, 82]"] ;
13 -> 14 ;
15 [label="gini = 0.5578\nsamples = 279\nvalue = [1, 7, 145, 11, 115]"] ;
13 -> 15 ;
16 [label="X[2] <= 547.5\ngini = 0.6319\nsamples = 12600\nvalue = [6374, 19, 404, 3536, 2267]"] ;
0 -> 16 [labeldistance=2.5, labelangle=-45, headlabel="False"] ;
17 [label="X[2] <= 105.0\ngini = 0.5069\nsamples = 5577\nvalue = [3696, 5, 57, 809, 1010]"] ;
16 -> 17 ;
18 [label="X[1] <= 3.5\ngini = 0.299\nsamples = 1510\nvalue = [1247, 2, 3, 58, 200]"] ;
17 -> 18 ;
19 [label="gini = 0.2487\nsamples = 1450\nvalue = [1247, 0, 0, 57, 146]"] ;
18 -> 19 ;
20 [label="gini = 0.1861\nsamples = 60\nvalue = [0, 2, 3, 1, 54]"] ;
18 -> 20 ;
21 [label="X[0] <= 0.5\ngini = 0.5635\nsamples = 4067\nvalue = [2449, 3, 54, 751, 810]"] ;
17 -> 21 ;
22 [label="gini = 0.5705\nsamples = 3542\nvalue = [2103, 3, 51, 735, 650]"] ;
21 -> 22 ;
23 [label="gini = 0.4718\nsamples = 525\nvalue = [346, 0, 3, 16, 160]"] ;
21 -> 23 ;
24 [label="X[0] <= 0.5\ngini = 0.6693\nsamples = 7023\nvalue = [2678, 14, 347, 2727, 1257]"] ;
16 -> 24 ;
25 [label="X[2] <= 912.5\ngini = 0.6611\nsamples = 6533\nvalue = [2440, 12, 317, 2696, 1068]"] ;
24 -> 25 ;
26 [label="gini = 0.6448\nsamples = 2158\nvalue = [1024, 4, 76, 676, 378]"] ;
25 -> 26 ;
27 [label="gini = 0.6542\nsamples = 4375\nvalue = [1416, 8, 241, 2020, 690]"] ;
25 -> 27 ;
28 [label="X[2] <= 2372.5\ngini = 0.6075\nsamples = 490\nvalue = [238, 2, 30, 31, 189]"] ;
24 -> 28 ;
29 [label="gini = 0.5547\nsamples = 409\nvalue = [226, 2, 6, 24, 151]"] ;
28 -> 29 ;
30 [label="gini = 0.6627\nsamples = 81\nvalue = [12, 0, 24, 7, 38]"] ;
28 -> 30 ;
}